{"ip":0,"fr":60,"v":"5.1.20","assets":[],"layers":[{"ty":4,"nm":"3","ip":0,"st":0,"ind":5,"hix":1,"ks":{"o":{"a":1,"k":[{"t":0,"s":[0],"e":[0],"i":{"x":[1],"y":[1]},"o":{"x":[0],"y":[0]}},{"t":78,"s":[0],"e":[100],"i":{"x":[0.515],"y":[0.955]},"o":{"x":[0.455],"y":[0.03]}},{"t":94}]},"or":{"a":0,"k":[0,0,0]},"a":{"a":0,"k":[48.5,49,0]},"p":{"s":true,"x":{"a":1,"k":[{"t":0,"s":[374.6],"e":[374.6],"i":{"x":[1],"y":[1]},"o":{"x":[0],"y":[0]}},{"t":78}]},"y":{"a":1,"k":[{"t":0,"s":[131],"e":[131],"i":{"x":[1],"y":[1]},"o":{"x":[0],"y":[0]}},{"t":78}]}},"rx":{"a":0,"k":0},"ry":{"a":0,"k":0},"rz":{"a":0,"k":0},"s":{"a":1,"k":[{"t":0,"s":[200,200],"e":[200,200],"i":{"x":[1,1],"y":[1,1]},"o":{"x":[0,0],"y":[0,0]}},{"t":78,"s":[200,200],"e":[100,100],"i":{"x":[0.515,0.515],"y":[0.955,0.955]},"o":{"x":[0.455,0.455],"y":[0.03,0.03]}},{"t":116}]}},"shapes":[{"ty":"gr","nm":"3 shape group","it":[{"ty":"sh","ks":{"a":0,"k":{"c":true,"v":[[61.432,14.6841319],[48.4848,1.00079121],[46.1601,0],[28.2198,0],[21.301,6.77063736],[17.8885,6.77063736],[10.9676,13.6094945],[7.5761,13.6094945],[0.6545,20.562989],[0.6545,56.3425055],[0.6559,56.3425055],[7.5775,63.2974066],[34.7823,63.2974066],[41.7032,56.4578462],[45.0947,56.4578462],[52.0135,49.6872088],[55.4246,49.6872088],[62.3455,42.7337143],[62.3455,16.9818022]],"i":[[0.5467000000000013,0.5781098999999994],[0,0],[0.8231999999999999,0],[0,0],[0.09730000000000061,-3.7506813200000004],[0,0],[0.060900000000000176,-3.7816263699999997],[0,0],[0,-3.834373600000003],[0,0],[0,0],[-3.8164,0],[0,0],[-0.06160000000000565,3.781626299999999],[0,0],[-0.09799999999999898,3.7513846000000015],[0,0],[0,3.8343735999999993],[0,0]],"o":[[0,0],[-0.5670000000000002,-0.598505496],[0,0],[-3.755499999999998,0],[0,0],[-3.778600000000001,0],[0,0],[-3.8164000000000002,0],[0,0],[0,0],[0,3.835076899999997],[0,0],[3.7779000000000025,0],[0,0],[3.754799999999996,0],[0,0],[3.8156999999999996,0],[0,0],[-0.0007000000000019213,-0.7968352000000003]]}}},{"ty":"sh","ks":{"a":0,"k":{"c":true,"v":[[48.4939,5.90487912],[57.0689,14.9675604],[50.7493,14.9675604],[48.4939,12.7015385]],"i":[[0,0],[0,0],[0,0],[0,1.2490549000000009]],"o":[[0,0],[0,0],[-1.2431999999999945,0],[0,0]]}}},{"ty":"sh","ks":{"a":0,"k":{"c":true,"v":[[34.7823,59.9272088],[7.5768,59.9272088],[4.0103,56.3432088],[4.0103,20.5622857],[7.5768,16.9796923],[10.9676,16.9796923],[10.9676,49.5043516],[17.8892,56.4592527],[38.3474,56.4592527]],"i":[[1.9277999999999977,0],[0,0],[0,1.976263700000004],[0,0],[-1.9656000000000002,0],[0,0],[0,0],[-3.816399999999998,0],[0,0]],"o":[[0,0],[-1.9663000000000004,0],[0,0],[0,-1.9748571000000013],[0,0],[0,0],[0,3.8343737000000004],[0,0],[-0.06090000000000373,1.9214065999999974]]}}},{"ty":"sh","ks":{"a":0,"k":{"c":true,"v":[[45.094,53.0876484],[17.8892,53.0876484],[14.3227,49.5036484],[14.3227,13.7241319],[17.8892,10.1408352],[21.2996,10.1408352],[21.2996,42.7351209],[28.2205,49.6886154],[48.6549,49.6886154]],"i":[[1.9046999999999983,0],[0,0],[0,1.9769669999999948],[0,0],[-1.9662999999999986,0],[0,0],[0,0],[-3.8164000000000016,0],[0,0]],"o":[[0,0],[-1.9662999999999986,0],[0,0],[0,-1.9755605000000003],[0,0],[0,0],[0,3.8336703000000014],[0,0],[-0.09590000000000032,1.8897581999999957]]}}},{"ty":"sh","ks":{"a":0,"k":{"c":true,"v":[[58.989,42.7351209],[55.4225,46.3177143],[28.2198,46.3177143],[24.6533,42.7351209],[24.6533,8.52043956],[24.6533,6.95349451],[28.2198,3.3701978],[45.1388,3.36949451],[45.1388,12.7022418],[50.7493,18.3384615],[58.989,18.3384615]],"i":[[0,0],[1.9669999999999987,0],[0,0],[0,1.975560399999999],[0,0],[0,0],[-1.9655999999999985,0],[0,0],[0,0],[-3.0932999999999993,0],[0,0]],"o":[[0,1.975560399999999],[0,0],[-1.9663000000000004,0],[0,0],[0,0],[0.0006999999999983686,-1.9755604399999998],[0,0],[0,0],[0,3.1071648000000014],[0,0],[0,0]]}}},{"ty":"st","o":{"a":0,"k":0},"w":{"a":0,"k":0},"c":{"a":0,"k":[0,0,0,0]},"lc":3,"lj":1,"ml":1},{"ty":"fl","o":{"a":0,"k":100},"r":1,"c":{"a":0,"k":[1,1,1,1]}},{"ty":"tr","o":{"a":0,"k":100},"a":{"a":0,"k":[0,0]},"s":{"a":0,"k":[100,100]},"p":{"a":0,"k":[14,21.768]},"r":{"a":0,"k":352.0252693283778}}]},{"ty":"gr","nm":"3 shape group","it":[{"ty":"rc","s":{"a":0,"k":[86.3321086,88.2348923]},"r":{"a":0,"k":8},"p":{"a":0,"k":[49.47635038,49.78136269]}},{"ty":"st","o":{"a":0,"k":0},"w":{"a":0,"k":0},"c":{"a":0,"k":[0,0,0,0]},"lc":3,"lj":1,"ml":1},{"ty":"gf","o":{"a":0,"k":100},"r":2,"g":{"p":2,"k":{"a":0,"k":[0,0.25882352941176473,0.3058823529411765,0.7647058823529411,1,0.32941176470588235,0.40784313725490196,0.803921568627451]}},"t":1,"s":{"a":0,"k":[29.039439167090016,23.85411934002434]},"e":{"a":0,"k":[63.09447124979938,56.06201501968784]}},{"ty":"tr","o":{"a":0,"k":100},"a":{"a":0,"k":[0,0]},"s":{"a":0,"k":[100,100]},"p":{"a":0,"k":[-7.447,6.37]},"r":{"a":0,"k":352.0252693283778}}]}],"op":359},{"ty":4,"nm":"2","ip":0,"st":0,"ind":4,"hix":2,"ks":{"o":{"a":1,"k":[{"t":0,"s":[0],"e":[0],"i":{"x":[1],"y":[1]},"o":{"x":[0],"y":[0]}},{"t":150,"s":[0],"e":[100],"i":{"x":[0.515],"y":[0.955]},"o":{"x":[0.455],"y":[0.03]}},{"t":168}]},"or":{"a":0,"k":[0,0,0]},"a":{"a":0,"k":[30,33,0]},"p":{"s":true,"x":{"a":1,"k":[{"t":0,"s":[132.5],"e":[132.5],"i":{"x":[1],"y":[1]},"o":{"x":[0],"y":[0]}},{"t":150}]},"y":{"a":1,"k":[{"t":0,"s":[212.5],"e":[212.5],"i":{"x":[1],"y":[1]},"o":{"x":[0],"y":[0]}},{"t":150}]}},"rx":{"a":0,"k":0},"ry":{"a":0,"k":0},"rz":{"a":0,"k":0},"s":{"a":1,"k":[{"t":0,"s":[300,300],"e":[300,300],"i":{"x":[1,1],"y":[1,1]},"o":{"x":[0,0],"y":[0,0]}},{"t":150,"s":[300,300],"e":[100,100],"i":{"x":[0.515,0.515],"y":[0.955,0.955]},"o":{"x":[0.455,0.455],"y":[0.03,0.03]}},{"t":228}]}},"shapes":[{"ty":"gr","nm":"2 shape group","it":[{"ty":"sh","ks":{"a":0,"k":{"c":true,"v":[[19.6,29.25],[8.4,29.25],[7,30.6428571],[8.4,32.0357143],[19.6,32.0357143],[21,30.6428571]],"i":[[0.8399999999999999,0],[0,0],[0,-0.8357142000000017],[-0.8400000000000007,0],[0,0],[0,0.8357142999999994]],"o":[[0,0],[-0.8400000000000007,0],[0,0.8357142999999994],[0,0],[0.8399999999999999,0],[0,-0.8357142000000017]]}}},{"ty":"st","o":{"a":0,"k":0},"w":{"a":0,"k":0},"c":{"a":0,"k":[0,0,0,0]},"lc":3,"lj":1,"ml":1},{"ty":"fl","o":{"a":0,"k":100},"r":1,"c":{"a":0,"k":[1,1,1,1]}},{"ty":"tr","o":{"a":0,"k":100},"a":{"a":0,"k":[0,0]},"s":{"a":0,"k":[100,100]},"p":{"a":0,"k":[20.109,11]},"r":{"a":0,"k":11.974817918234205}}]},{"ty":"gr","nm":"2 shape group","it":[{"ty":"sh","ks":{"a":0,"k":{"c":true,"v":[[19.6,22.2857143],[8.4,22.2857143],[7,23.6785714],[8.4,25.0714286],[19.6,25.0714286],[21,23.6785714]],"i":[[0.8399999999999999,0],[0,0],[0,-0.8357142999999994],[-0.8400000000000007,0],[0,0],[0,0.8357142999999994]],"o":[[0,0],[-0.8400000000000007,0],[0,0.8357142999999994],[0,0],[0.8399999999999999,0],[0,-0.8357142999999994]]}}},{"ty":"st","o":{"a":0,"k":0},"w":{"a":0,"k":0},"c":{"a":0,"k":[0,0,0,0]},"lc":3,"lj":1,"ml":1},{"ty":"fl","o":{"a":0,"k":100},"r":1,"c":{"a":0,"k":[1,1,1,1]}},{"ty":"tr","o":{"a":0,"k":100},"a":{"a":0,"k":[0,0]},"s":{"a":0,"k":[100,100]},"p":{"a":0,"k":[20.109,11]},"r":{"a":0,"k":11.974817918234205}}]},{"ty":"gr","nm":"2 shape group","it":[{"ty":"sh","ks":{"a":0,"k":{"c":true,"v":[[8.4,15.3214286],[7,16.7142857],[8.4,18.1071429],[19.6,18.1071429],[21,16.7142857],[19.6,15.3214286]],"i":[[0,0],[0,-0.8357143000000011],[-0.8400000000000007,0],[0,0],[0,0.8357142999999994],[0.8399999999999999,0]],"o":[[-0.8400000000000007,0],[0,0.8357142999999994],[0,0],[0.8399999999999999,0],[0,-0.8357143000000011],[0,0]]}}},{"ty":"st","o":{"a":0,"k":0},"w":{"a":0,"k":0},"c":{"a":0,"k":[0,0,0,0]},"lc":3,"lj":1,"ml":1},{"ty":"fl","o":{"a":0,"k":100},"r":1,"c":{"a":0,"k":[1,1,1,1]}},{"ty":"tr","o":{"a":0,"k":100},"a":{"a":0,"k":[0,0]},"s":{"a":0,"k":[100,100]},"p":{"a":0,"k":[20.109,11]},"r":{"a":0,"k":11.974817918234205}}]},{"ty":"gr","nm":"2 shape group","it":[{"ty":"sh","ks":{"a":0,"k":{"c":true,"v":[[27.58,10.1678571],[17.78,0.417857143],[17.36,0.139285714],[16.8,0],[4.2,0],[0,4.17857143],[0,34.8214286],[4.2,39],[23.8,39],[28,34.8214286],[28,11.1428571],[27.86,10.5857143]],"i":[[0.14000000000000057,0.13928579999999968],[0,0],[0.14000000000000057,0],[0.14000000000000057,0],[0,0],[0,-2.36785714],[0,0],[-2.38,0],[0,0],[0,2.367857100000002],[0,0],[0.14000000000000057,0.1392857000000003]],"o":[[0,0],[-0.14000000000000057,-0.139285714],[-0.14000000000000057,-0.139285714],[0,0],[-2.38,0],[0,0],[0,2.367857100000002],[0,0],[2.379999999999999,0],[0,0],[0,-0.1392857000000003],[0,-0.1392856999999985]]}}},{"ty":"sh","ks":{"a":0,"k":{"c":true,"v":[[18.2,4.73571429],[23.24,9.75],[19.6,9.75],[18.2,8.35714286]],"i":[[0,0],[0,0],[0,0],[0,0.8357142799999995]],"o":[[0,0],[0,0],[-0.8399999999999999,0],[0,0]]}}},{"ty":"sh","ks":{"a":0,"k":{"c":true,"v":[[25.2,34.8214286],[23.8,36.2142857],[4.2,36.2142857],[2.8,34.8214286],[2.8,4.17857143],[4.2,2.78571429],[15.4,2.78571429],[15.4,8.35714286],[19.6,12.5357143],[25.2,12.5357143]],"i":[[0,0],[0.8399999999999999,0],[0,0],[0,0.8357142999999994],[0,0],[-0.8400000000000003,0],[0,0],[0,0],[-2.3800000000000026,0],[0,0]],"o":[[0,0.8357142999999994],[0,0],[-0.8400000000000003,0],[0,0],[0,-0.8357142899999999],[0,0],[0,0],[0,2.36785714],[0,0],[0,0]]}}},{"ty":"st","o":{"a":0,"k":0},"w":{"a":0,"k":0},"c":{"a":0,"k":[0,0,0,0]},"lc":3,"lj":1,"ml":1},{"ty":"fl","o":{"a":0,"k":100},"r":1,"c":{"a":0,"k":[1,1,1,1]}},{"ty":"tr","o":{"a":0,"k":100},"a":{"a":0,"k":[0,0]},"s":{"a":0,"k":[100,100]},"p":{"a":0,"k":[20.109,11]},"r":{"a":0,"k":11.974817918234205}}]},{"ty":"gr","nm":"2 shape group","it":[{"ty":"rc","s":{"a":0,"k":[52,58]},"r":{"a":0,"k":8},"p":{"a":0,"k":[32,34]}},{"ty":"st","o":{"a":0,"k":0},"w":{"a":0,"k":0},"c":{"a":0,"k":[0,0,0,0]},"lc":3,"lj":1,"ml":1},{"ty":"gf","o":{"a":0,"k":100},"r":2,"g":{"p":2,"k":{"a":0,"k":[0,0,0.803921568627451,0.47058823529411764,1,0.08235294117647059,0.984313725490196,0.611764705882353]}},"t":1,"s":{"a":0,"k":[0,-6.761101992]},"e":{"a":0,"k":[46.23125,58]}},{"ty":"tr","o":{"a":0,"k":100},"a":{"a":0,"k":[0,0]},"s":{"a":0,"k":[100,100]},"p":{"a":0,"k":[5.768,-6.91]},"r":{"a":0,"k":11.974817918234205}}]}],"op":359},{"ty":4,"nm":"1","ip":0,"st":0,"ind":3,"hix":4,"ks":{"o":{"a":0,"k":100},"or":{"a":0,"k":[0,0,0]},"a":{"a":0,"k":[46.5,73,0]},"p":{"s":true,"x":{"a":1,"k":[{"t":0,"s":[148],"e":[148],"i":{"x":[1],"y":[1]},"o":{"x":[0],"y":[0]}},{"t":60}]},"y":{"a":1,"k":[{"t":0,"s":[28],"e":[82.5],"i":{"x":[0.515],"y":[0.955]},"o":{"x":[0.455],"y":[0.03]}},{"t":60}]}},"rx":{"a":0,"k":0},"ry":{"a":0,"k":0},"rz":{"a":0,"k":0},"s":{"a":0,"k":[100,100,100]}},"shapes":[{"ty":"gr","nm":"1 shape group","it":[{"ty":"sh","ks":{"a":0,"k":{"c":true,"v":[[73.2148692,121.338565],[85.1502031,140.937297],[86.8564156,137.897043],[63.909477,137.91959],[61.911443,139.921554],[63.9134071,141.919588],[86.8603457,141.897042],[88.5665582,138.856788],[76.6312243,119.258056],[73.8827922,118.590133]],"i":[[-0.5745166999999896,-0.9434010000000086],[0,0],[0,0],[0,0],[-0.0010852999999997337,-1.104568999999998],[-1.104568999999998,0.0010849999999891224],[0,0],[0.8111870000000039,1.3320310000000006],[0,0],[0.9434004000000016,-0.5745170000000002]],"o":[[0,0],[0,0],[0,0],[-1.104569000000005,0.0010849999999891224],[0.0010852999999997337,1.1045690000000263],[0,0],[1.559592600000002,-0.0015329999999948996],[0,0],[-0.5745167000000038,-0.9434009999999944],[-0.9434004000000016,0.5745160000000027]]}}},{"ty":"sh","ks":{"a":0,"k":{"c":true,"v":[[86.7471189,137.541173],[70.4210445,128.378861],[70.6058258,128.496304],[40.7150317,89.6865461],[38.0982593,88.6129993],[37.0247126,91.2297717],[68.2786445,131.749645],[68.4634259,131.867088],[84.7895003,141.0294],[87.5124233,140.264096]],"i":[[0.9632474000000002,0.5405810000000031],[0,0],[0,0],[6.939488900000001,16.5944159],[1.0190534999999983,-0.42614989999999864],[-0.4261499999999998,-1.0190534999999983],[-13.614721599999996,-9.738887999999989],[0,0],[0,0],[-0.5405814999999876,0.9632469999999955]],"o":[[0,0],[0,0],[-12.990933500000004,-9.292680000000004],[-0.4261499999999998,-1.0190534999999983],[-1.0190534000000042,0.4261500000000069],[7.218006699999997,17.260436299999995],[0,0],[0,0],[0.9632474000000002,0.5405820000000006],[0.5405814000000078,-0.9632469999999955]]}}},{"ty":"st","o":{"a":0,"k":0},"w":{"a":0,"k":0},"c":{"a":0,"k":[0,0,0,0]},"lc":3,"lj":1,"ml":1},{"ty":"fl","o":{"a":0,"k":100},"r":1,"c":{"a":0,"k":[0.32941176470588235,0.40784313725490196,0.803921568627451,1]}},{"ty":"tr","o":{"a":0,"k":100},"a":{"a":0,"k":[0,0]},"s":{"a":0,"k":[100,100]},"p":{"a":0,"k":[4,4]},"r":{"a":0,"k":0}}]},{"ty":"gr","nm":"1 shape group","it":[{"ty":"sh","ks":{"a":0,"k":{"c":true,"v":[[19.8126437,23.1875],[19.762069,23.88125],[19.8316092,23.38125],[19.4712644,24.675],[19.6609195,24.225],[19.2247126,25.025],[19.0793103,25.225],[19.1741379,25.10625],[18.8643678,25.4375],[18.5293103,25.74375],[18.6494253,25.65],[18.4787356,25.76875],[17.637931,26.21875],[18.0931034,26.03125],[16.7844828,26.3875],[17.2902299,26.31875],[15.8867816,26.31875],[16.3925287,26.3875],[15.083908,26.03125],[15.5390805,26.21875],[14.7298851,25.7875],[14.5275862,25.64375],[14.6477011,25.7375],[14.3126437,25.43125],[14.0028736,25.1],[14.0977011,25.21875],[13.9775862,25.05],[13.5224138,24.21875],[13.712069,24.66875],[13.3517241,23.375],[13.4212644,23.875],[13.4212644,22.4875],[13.3517241,22.9875],[13.712069,21.69375],[13.5224138,22.14375],[13.9586207,21.34375],[14.104023,21.14375],[14.0091954,21.2625],[14.3189655,20.93125],[14.654023,20.625],[14.533908,20.71875],[14.7045977,20.6],[15.5454023,20.15],[15.0902299,20.3375],[16.3988506,19.98125],[15.8931034,20.05],[17.2965517,20.05],[16.7908046,19.98125],[18.0994253,20.3375],[17.6442529,20.15],[18.4534483,20.58125],[18.6557471,20.725],[18.5356322,20.63125],[18.8706897,20.9375],[19.1804598,21.26875],[19.0856322,21.15],[19.2057471,21.31875],[19.6609195,22.15],[19.4712644,21.7],[19.8316092,22.99375],[19.762069,22.49375],[19.8126437,23.1875],[21.7091954,25.0625],[23.6057471,23.1875],[22.3603448,19.25],[18.8706897,16.63125],[11.2655172,18.675],[9.59022989,22.75],[10.5637931,26.75],[13.5413793,29.43125],[18.0488506,29.96875],[23.6057471,23.1875],[21.7091954,21.3125]],"i":[[0.0126437000000017,-1.0500000000000007],[0.03160919999999834,-0.23125000000000284],[-0.02528739999999985,0.1687499999999993],[0.17068959999999933,-0.4125000000000014],[-0.06321840000000023,0.14999999999999858],[0.1706897000000005,-0.25624999999999787],[0.0505747999999997,-0.0625],[0.22126439999999903,-0.24374999999999858],[0.10747130000000027,-0.10624999999999929],[0.11379310000000231,-0.09999999999999787],[0.27183909999999756,-0.18124999999999858],[0.05689659999999819,-0.03750000000000142],[0.2908046000000013,-0.125],[-0.15172409999999914,0.0625],[0.4488505000000025,-0.0625],[-0.1706897000000005,0.02499999999999858],[0.4678160999999985,0.0625],[-0.17068959999999933,-0.02499999999999858],[0.4172414,0.1687499999999993],[-0.1517242000000003,-0.0625],[0.2591953999999994,0.1687499999999993],[0.06321840000000023,0.05000000000000071],[0.24655179999999888,0.21875],[0.1074711999999991,0.10625000000000284],[0.10114940000000061,0.11249999999999716],[0.18333340000000042,0.2687500000000007],[0.03793100000000038,0.05624999999999858],[0.12643679999999868,0.2875000000000014],[-0.06321840000000023,-0.14999999999999858],[0.06321840000000023,0.4437500000000014],[-0.02528739999999985,-0.1687499999999993],[-0.06321840000000023,0.4624999999999986],[0.02528739999999985,-0.1687499999999993],[-0.1706897000000005,0.41249999999999787],[0.06321839999999845,-0.15000000000000213],[-0.1706897000000005,0.2562500000000014],[-0.050574700000000306,0.0625],[-0.22126439999999903,0.24375000000000213],[-0.1074711999999991,0.10625000000000284],[-0.11379310000000054,0.10000000000000142],[-0.27183899999999994,0.18124999999999858],[-0.056896599999999964,0.03749999999999787],[-0.2908045999999995,0.125],[0.15172409999999914,-0.0625],[-0.4488506000000001,0.0625],[0.17068970000000228,-0.02500000000000213],[-0.46781609999999674,-0.0625],[0.17068969999999695,0.02500000000000213],[-0.41724140000000176,-0.1687499999999993],[0.15172409999999914,0.0625],[-0.25919540000000296,-0.1687499999999993],[-0.06321840000000023,-0.05000000000000071],[-0.2465516999999977,-0.21875],[-0.10747130000000027,-0.10624999999999929],[-0.10114950000000178,-0.11250000000000071],[-0.18333329999999748,-0.26874999999999716],[-0.03793100000000038,-0.05625000000000213],[-0.1264366999999993,-0.28749999999999787],[0.06321840000000023,0.15000000000000213],[-0.06321840000000023,-0.44374999999999787],[0.02528729999999868,0.16875000000000284],[0,-0.2312499999999993],[-1.0304597999999991,0.04374999999999929],[0.006321900000003211,1.0500000000000007],[0.8281609000000003,1.1187499999999986],[1.4413793000000013,0.5249999999999986],[1.7701150000000005,-2.125],[0.1327586200000006,-1.5375000000000014],[-0.7143678100000006,-1.1750000000000007],[-1.2327585999999986,-0.5499999999999972],[-1.5614943000000032,0.2937499999999993],[-0.03160919999999834,3.1812499999999986],[1.017816100000001,-0.04374999999999929]],"o":[[0,0.2312499999999993],[0.02528729999999868,-0.16875000000000284],[-0.06321840000000023,0.4499999999999993],[0.06321840000000023,-0.15000000000000213],[-0.12011489999999725,0.2749999999999986],[-0.04425279999999887,0.06875000000000142],[-0.18965509999999952,0.26874999999999716],[-0.10114940000000061,0.11250000000000071],[-0.1074711999999991,0.10624999999999929],[-0.23390799999999956,0.20000000000000284],[-0.05689660000000174,0.03750000000000142],[-0.26551720000000145,0.1750000000000007],[0.1517242000000003,-0.0625],[-0.42356320000000025,0.1750000000000007],[0.17068959999999933,-0.02499999999999858],[-0.4678161000000003,0.0625],[0.17068969999999872,0.02499999999999858],[-0.45517240000000037,-0.0625],[0.1517242000000003,0.0625],[-0.27816100000000077,-0.11874999999999858],[-0.06954029999999989,-0.04375000000000284],[-0.27183909999999933,-0.1875],[-0.11379310000000054,-0.10000000000000142],[-0.10747130000000027,-0.10624999999999929],[-0.20229889999999884,-0.23125000000000284],[-0.03793100000000038,-0.05624999999999858],[-0.177011499999999,-0.2624999999999993],[0.06321839999999845,0.14999999999999858],[-0.177011499999999,-0.4187499999999993],[0.02528739999999985,0.1687499999999993],[-0.06321840000000023,-0.4624999999999986],[-0.02528739999999985,0.1687499999999993],[0.06321840000000023,-0.4499999999999993],[-0.06321840000000023,0.14999999999999858],[0.12011489999999903,-0.27500000000000213],[0.04425289999999826,-0.06875000000000142],[0.1896552000000007,-0.2687500000000007],[0.10114940000000061,-0.11250000000000071],[0.10747130000000027,-0.10624999999999929],[0.23390799999999956,-0.1999999999999993],[0.056896599999999964,-0.03750000000000142],[0.2655171999999997,-0.1750000000000007],[-0.15172409999999914,0.0625],[0.4235631999999985,-0.17499999999999716],[-0.1706897000000005,0.02500000000000213],[0.46781610000000207,-0.0625],[-0.17068959999999933,-0.02500000000000213],[0.4551723999999986,0.0625],[-0.1517242000000003,-0.0625],[0.2781608999999996,0.11875000000000213],[0.06954019999999872,0.04374999999999929],[0.2718391000000011,0.1875],[0.11379310000000231,0.09999999999999787],[0.1074711999999991,0.10624999999999929],[0.20229879999999767,0.2312499999999993],[0.03793100000000038,0.05625000000000213],[0.177011499999999,0.2624999999999993],[-0.06321840000000023,-0.14999999999999858],[0.17701150000000254,0.4187499999999993],[-0.02528739999999985,-0.1687499999999993],[0.03160919999999834,0.23125000000000284],[0.0063218000000020425,0.9812499999999993],[1.017816100000001,-0.04374999999999929],[-0.012643699999998148,-1.375],[-0.9040229999999987,-1.21875],[-2.617241400000001,-0.9562500000000007],[-0.9862068999999991,1.1875],[-0.12011494999999961,1.3687499999999986],[0.6954022999999996,1.1374999999999993],[1.447701200000001,0.6437500000000007],[3.224137899999999,-0.6000000000000014],[0.006321900000003211,-0.9812499999999993],[-1.0367815999999976,0.04374999999999929]]}}},{"ty":"st","o":{"a":0,"k":0},"w":{"a":0,"k":0},"c":{"a":0,"k":[0,0,0,0]},"lc":3,"lj":1,"ml":1},{"ty":"fl","o":{"a":0,"k":100},"r":1,"c":{"a":0,"k":[1,1,1,1]}},{"ty":"tr","o":{"a":0,"k":100},"a":{"a":0,"k":[0,0]},"s":{"a":0,"k":[100,100]},"p":{"a":0,"k":[11,11]},"r":{"a":0,"k":0}}]},{"ty":"gr","nm":"1 shape group","it":[{"ty":"sh","ks":{"a":0,"k":{"c":true,"v":[[45.0114943,48.625],[41.3954023,48.625],[32.7787356,48.625],[22.3287356,48.625],[13.2948276,48.625],[8.9137931,48.625],[8.85057471,48.625],[10.7471264,50.5],[10.7471264,45.375],[10.487931,46.31875],[15.4695402,39.75],[16.1775862,38.81875],[13.5856322,39.49375],[20.2235632,43.86875],[21.1718391,44.49375],[22.6321839,44.68125],[23.7637931,43.81875],[27.5316092,38.95],[33.512069,31.21875],[34.883908,29.44375],[31.9063218,29.825],[35.8827586,34.05],[42.2172414,40.78125],[43.6712644,42.325],[43.1149425,41],[43.1149425,49.33125],[43.1149425,50.5],[45.0114943,52.375],[46.908046,50.5],[46.908046,45.0625],[46.908046,41.775],[46.908046,41.04375],[46.2821839,39.59375],[43.0011494,36.10625],[37.791954,30.56875],[34.6436782,27.225],[34.5931034,27.175],[33,26.65625],[31.6155172,27.55],[27.8477011,32.41875],[21.8672414,40.15],[20.4954023,41.925],[23.0873563,41.25],[16.4494253,36.875],[15.5011494,36.25],[14.0408046,36.0625],[12.9091954,36.925],[9.16666667,41.85625],[7.34597701,44.25625],[6.96034483,46.98125],[6.96034483,50.49375],[8.85689655,52.36875],[12.4729885,52.36875],[21.0896552,52.36875],[31.5396552,52.36875],[40.5735632,52.36875],[44.9545977,52.36875],[45.0178161,52.36875],[46.9143678,50.49375]],"i":[[1.0620688999999999,0],[1.2074713000000017,0],[2.8701150000000055,0],[3.4833333999999994,0],[3.0155171999999997,0],[1.4540230000000012,-0.03125],[0.01896552000000007,0],[-0.6321839000000011,-0.625],[0,1.7062499999999972],[0.08850580000000008,-0.3125],[-1.6563218000000006,2.1875],[-0.240229900000001,0.3125],[0.8597701000000004,-0.22500000000000142],[-2.212643700000001,-1.4562499999999972],[-0.31609200000000115,-0.20624999999999716],[-0.4298850000000023,0.13750000000000284],[-0.31609200000000115,0.4125000000000014],[-1.251724099999997,1.6187499999999986],[-1.9913792999999984,2.575000000000003],[-0.45517239999999504,0.59375],[0.9925288000000023,-0.13124999999999787],[-1.327586200000006,-1.40625],[-2.111494299999997,-2.2437499999999986],[-0.4867816000000005,-0.5125000000000028],[0.1833334000000022,0.4437500000000014],[0,-2.7749999999999986],[0,-0.38750000000000284],[-1.0241380000000007,0.04375000000000284],[0,1.0499999999999972],[0,1.8125],[0,1.09375],[0.0063218000000020425,0.24374999999999858],[0.37298849999999817,0.4125000000000014],[1.0936781999999994,1.1624999999999943],[1.7385058000000058,1.84375],[1.068390800000003,1.09375],[0.01896560000000136,0.01249999999999929],[0.5752874000000006,-0.07499999999999929],[0.3729885000000017,-0.4875000000000007],[1.2517242000000017,-1.6187500000000021],[1.9913792999999984,-2.5749999999999957],[0.45517240000000214,-0.59375],[-0.8597700999999986,0.22500000000000142],[2.2126436999999974,1.4562499999999972],[0.31609200000000115,0.20624999999999716],[0.4298850999999999,-0.13750000000000284],[0.3097700999999997,-0.4124999999999943],[1.245402330000001,-1.6437500000000043],[0.6068965499999992,-0.8000000000000043],[0,-0.8625000000000043],[0,-1.1749999999999972],[-1.0304597700000002,0],[-1.2074713,0],[-2.8701149999999984,0],[-3.4833333999999994,0],[-3.015517200000005,0],[-1.4603448000000014,0.02499999999999858],[-0.01896550000000019,0],[0.04425289999999649,1.0125000000000028]],"o":[[-1.2074713000000017,0],[-2.8701148999999972,0],[-3.483333299999998,0],[-3.009195400000003,0],[-1.4603447999999997,0],[-0.01896550999999924,0],[0.6321839100000002,0.625],[0,-1.7062499999999972],[-0.08850570000000069,0.3125],[1.6626437000000003,-2.1875],[0.23390809999999895,-0.3125],[-0.8660919000000007,0.22500000000000142],[2.212643700000001,1.4562500000000043],[0.3160919999999976,0.20625000000000426],[0.3793103000000002,0.25],[0.49942529999999863,-0.16250000000000142],[1.2580460000000002,-1.625],[1.991379300000002,-2.575000000000003],[0.45517240000000214,-0.59375],[-0.9925287000000012,0.125],[1.327586199999999,1.40625],[2.111494299999997,2.2437500000000057],[0.4867816000000005,0.5125000000000028],[-0.1833333999999951,-0.4437500000000014],[0,2.7749999999999986],[0,0.38750000000000284],[0,0.9812500000000028],[1.0304596999999944,-0.04375000000000284],[0,-1.8125],[0,-1.09375],[0,-0.24374999999999858],[-0.01896550000000019,-0.5625],[-1.0873562999999962,-1.1687500000000028],[-1.7385057000000046,-1.84375],[-1.0494252999999958,-1.1125000000000007],[-0.018965599999994254,-0.01875000000000071],[-0.41091949999999855,-0.43125000000000213],[-0.6321839000000011,0.08125000000000071],[-1.258045899999999,1.625],[-1.9913792999999984,2.5749999999999957],[-0.45517240000000214,0.59375],[0.8660920000000019,-0.22499999999999432],[-2.212643700000001,-1.4562499999999972],[-0.31609200000000115,-0.20624999999999716],[-0.37931029999999843,-0.25],[-0.4994253000000004,0.16250000000000142],[-1.2454023000000003,1.6437500000000043],[-0.6068965599999991,0.7999999999999972],[-0.5500000000000007,0.7312499999999957],[0,1.1687499999999957],[0,1.0125000000000028],[1.2074712499999993,0],[2.870114900000001,0],[3.4833333000000017,0],[3.009195400000003,0],[1.4603447999999943,0],[0.01896550000000019,0],[0.9925287000000012,0],[-0.05057469999999853,-1.0124999999999957]]}}},{"ty":"st","o":{"a":0,"k":0},"w":{"a":0,"k":0},"c":{"a":0,"k":[0,0,0,0]},"lc":3,"lj":1,"ml":1},{"ty":"fl","o":{"a":0,"k":100},"r":1,"c":{"a":0,"k":[1,1,1,1]}},{"ty":"tr","o":{"a":0,"k":100},"a":{"a":0,"k":[0,0]},"s":{"a":0,"k":[100,100]},"p":{"a":0,"k":[11,11]},"r":{"a":0,"k":0}}]},{"ty":"gr","nm":"1 shape group","it":[{"ty":"sh","ks":{"a":0,"k":{"c":true,"v":[[51.933908,19.1875],[46.4844828,19.1875],[37.95,19.1875],[35.7436782,19.15625],[36.2494253,19.225],[35.3517241,18.975],[35.8068966,19.1625],[35.2948276,18.8875],[35.3454023,18.93125],[35.1367816,18.7375],[34.9408046,18.525],[35.0166667,18.60625],[34.7258621,18.0625],[34.9155172,18.5125],[34.6942529,17.7],[34.7637931,18.2],[34.7321839,16.35],[34.7321839,12.60625],[34.7321839,3.93125],[34.7321839,1.93125],[31.4954023,3.25625],[33.3982759,5.1625],[37.9626437,9.7375],[43.4816092,15.26875],[48.2356322,20.03125],[50.5557471,22.35625],[50.5873563,22.3875],[53.2678161,22.3875],[53.2678161,19.7375],[51.3649425,17.83125],[46.8005747,13.25625],[41.2816092,7.725],[36.5275862,2.9625],[34.2074713,0.6375],[34.1758621,0.60625],[32.1022989,0.21875],[30.9454023,1.9375],[30.9454023,8.05625],[30.9454023,16.74375],[30.9454023,17.65625],[31.5965517,20.2625],[35.162069,22.8375],[36.5465517,22.94375],[44.5057471,22.94375],[51.8074713,22.94375],[51.9402299,22.94375],[53.8367816,21.06875]],"i":[[1.062069000000001,0],[1.8206895999999944,0],[2.844827599999995,0],[0.7206896,0.08749999999999858],[-0.17068969999999695,-0.02500000000000213],[0.2908046000000013,0.125],[-0.15172420000000386,-0.0625],[0.16436780000000084,0.10624999999999929],[0.22758619999999752,0.21250000000000213],[0.06321840000000378,0.06874999999999787],[0.06954019999999872,0.06875000000000142],[0.1074711999999991,0.15625],[0.08218389999999687,0.1875],[-0.06321829999999551,-0.14999999999999858],[0.04425279999999532,0.28125],[-0.0252874000000034,-0.1687499999999993],[0,0.6124999999999972],[0,1.25],[0,2.8937500000000003],[0,0.6687500000000002],[1.0810345000000048,-0.4437500000000001],[-0.6385058000000043,-0.6374999999999993],[-1.5235631999999981,-1.5250000000000004],[-1.8396552000000028,-1.84375],[-1.5867815999999948,-1.5874999999999986],[-0.7902298999999999,-0.7562499999999979],[-0.012643700000005254,-0.01249999999999929],[-0.6890804999999958,0.7437500000000021],[0.7459770000000034,0.7437499999999986],[0.6385058000000043,0.6374999999999993],[1.5235631999999981,1.5250000000000004],[1.8396552000000028,1.84375],[1.5867815999999948,1.5875],[0.7965516999999949,0.75],[0.01264359999999698,0.012500000000000067],[0.6954021999999966,-0.2875],[0,-0.75],[0,-2.04375],[0,-2.893749999999999],[0,-0.3062499999999986],[-0.44252870000000044,-0.8125],[-1.4793104000000028,-0.25],[-0.4678161000000003,0],[-2.655172399999998,0],[-2.4339081000000036,0],[-0.04425289999999649,0],[0.04425289999999649,1.0124999999999993]],"o":[[-1.8143677999999994,0],[-2.844827600000002,0],[-0.7270115000000033,0],[0.17068960000000288,0.02499999999999858],[-0.3097701000000015,-0.04375000000000284],[0.15172420000000386,0.0625],[-0.177011499999999,-0.08125000000000071],[-0.3856321999999963,-0.25],[-0.06954020000000583,-0.0625],[-0.06954019999999872,-0.06875000000000142],[0.39827590000000157,0.38750000000000284],[-0.11379310000000231,-0.1750000000000007],[0.06321839999999668,0.14999999999999858],[-0.1074711999999991,-0.2624999999999993],[0.025287299999995128,0.1687499999999993],[-0.06954019999999872,-0.6062499999999993],[0,-1.2500000000000018],[0,-2.893749999999999],[0,-0.6687499999999997],[-1.0810345000000012,0.4437500000000001],[0.6321839000000047,0.6374999999999997],[1.5235631999999981,1.5250000000000004],[1.8396551999999957,1.84375],[1.586781600000002,1.5874999999999986],[0.7712643999999997,0.7749999999999986],[0.012643700000005254,0.01249999999999929],[0.6954022999999978,0.6999999999999993],[0.7017240999999999,-0.75],[-0.632183899999994,-0.6374999999999993],[-1.5235631999999981,-1.5250000000000021],[-1.8396551999999957,-1.84375],[-1.5867815999999948,-1.5874999999999995],[-0.7712643999999997,-0.7749999999999999],[-0.012643699999998148,-0.012499999999999956],[-0.5373564000000002,-0.5375],[-0.6764368000000012,0.29374999999999996],[0,2.0375],[0,2.893749999999999],[0,0.30625000000000213],[0,0.9187499999999993],[0.701724200000001,1.3000000000000007],[0.4741378999999952,0.08125000000000071],[2.655172399999998,0],[2.4339080999999965,0],[0.04425279999999532,0],[0.9925287000000012,0],[-0.05057469999999853,-1.0250000000000021]]}}},{"ty":"st","o":{"a":0,"k":0},"w":{"a":0,"k":0},"c":{"a":0,"k":[0,0,0,0]},"lc":3,"lj":1,"ml":1},{"ty":"fl","o":{"a":0,"k":100},"r":1,"c":{"a":0,"k":[1,1,1,1]}},{"ty":"tr","o":{"a":0,"k":100},"a":{"a":0,"k":[0,0]},"s":{"a":0,"k":[100,100]},"p":{"a":0,"k":[11,11]},"r":{"a":0,"k":0}}]},{"ty":"gr","nm":"1 shape group","it":[{"ty":"sh","ks":{"a":0,"k":{"c":true,"v":[[50.0373563,21.0625],[50.0373563,24.41875],[50.0373563,32.4],[50.0373563,42.075],[50.0373563,50.325],[50.0373563,54.225],[50.012069,54.68125],[50.0816092,54.18125],[49.8350575,55.0625],[50.0247126,54.6125],[49.7528736,55.1125],[49.8034483,55.05625],[49.6074713,55.2625],[49.3988506,55.45625],[49.4873563,55.38125],[48.9436782,55.675],[49.3988506,55.4875],[48.5074713,55.73125],[49.0132184,55.6625],[47.5086207,55.6875],[44.3982759,55.6875],[39.7201149,55.6875],[33.9798851,55.6875],[27.7149425,55.6875],[21.3551724,55.6875],[15.4632184,55.6875],[10.4752874,55.6875],[6.92873563,55.6875],[5.31666667,55.6875],[4.8362069,55.6625],[5.34195402,55.73125],[4.45057471,55.4875],[4.90574713,55.675],[4.4,55.40625],[4.45689655,55.45625],[4.24827586,55.2625],[4.05229885,55.05625],[4.12816092,55.14375],[3.83103448,54.60625],[4.02068966,55.05625],[3.77413793,54.175],[3.84367816,54.675],[3.8183908,53.01875],[3.8183908,49.49375],[3.8183908,44.2],[3.8183908,37.7375],[3.8183908,30.61875],[3.8183908,23.4625],[3.8183908,16.76875],[3.8183908,11.15625],[3.8183908,7.1375],[3.8183908,5.3],[3.84367816,4.81875],[3.77413793,5.31875],[4.02068966,4.4375],[3.83103448,4.8875],[4.10287356,4.3875],[4.05229885,4.44375],[4.24827586,4.2375],[4.45689655,4.04375],[4.3683908,4.11875],[4.91206897,3.825],[4.45689655,4.0125],[5.34827586,3.76875],[4.84252874,3.8375],[5.91724138,3.8125],[7.87068966,3.8125],[14.3948276,3.8125],[22.4362069,3.8125],[29.3902299,3.8125],[32.7850575,3.8125],[32.8356322,3.8125],[31.4954023,3.2625],[33.3982759,5.16875],[37.9626437,9.74375],[43.4816092,15.275],[48.2356322,20.0375],[50.5557471,22.3625],[50.5873563,22.39375],[53.2678161,22.39375],[53.2678161,19.74375],[51.7885057,18.2625],[48.1155172,14.58125],[43.3614943,9.81875],[38.7086207,5.1625],[35.2758621,1.725],[34.3718391,0.81875],[32.7977011,0.0625],[30.287931,0.0625],[24.8258621,0.0625],[18.0362069,0.0625],[11.4741379,0.0625],[6.7137931,0.0625],[5.5,0.0625],[2.90172414,0.61875],[0.0316091954,5.25],[0.0316091954,5.61875],[0.0316091954,8.0375],[0.0316091954,12.28125],[0.0316091954,17.86875],[0.0316091954,24.31875],[0.0316091954,31.18125],[0.0316091954,37.9125],[0.0316091954,44.0625],[0.0316091954,49.15],[0.0316091954,52.69375],[0.0316091954,54.2125],[1.9091954,58.19375],[5.36724138,59.41875],[7.37126437,59.41875],[11.5563218,59.41875],[17.2902299,59.41875],[23.9408046,59.41875],[30.8948276,59.41875],[37.4505747,59.41875],[43.0074713,59.41875],[46.9270115,59.41875],[48.5706897,59.41875],[53.0275862,56.9875],[53.8304598,54.09375],[53.8304598,51.5],[53.8304598,46.45625],[53.8304598,40.00625],[53.8304598,33.19375],[53.8304598,27.0625],[53.8304598,22.65],[53.8304598,21.04375],[51.933908,19.16875]],"i":[[0,-1.0500000000000007],[0,-1.1187499999999986],[0,-2.662499999999998],[0,-3.2250000000000014],[0,-2.75],[0.012643699999998148,-1.3000000000000043],[0.012643600000004085,-0.14999999999999858],[-0.0252874000000034,0.16875000000000284],[0.12011490000000435,-0.2875000000000014],[-0.06321830000000261,0.15000000000000568],[0.1074711999999991,-0.15625],[0.20862069999999733,-0.22500000000000142],[0.06954019999999872,-0.0625],[0.06954019999999872,-0.06874999999999432],[0.34137929999999983,-0.20000000000000284],[0.18965509999999597,-0.08749999999999858],[-0.15172420000000386,0.0625],[0.3097701000000015,-0.04375000000000284],[-0.17068969999999695,0.02499999999999858],[0.4931033999999954,0],[1.0367815999999976,0],[1.5614942999999997,0],[1.9155172000000036,0],[2.0862069000000005,0],[2.124137900000001,0],[1.9660919000000003,0],[1.6626436000000009,0],[1.1821839099999991,0],[0.5373563199999998,0],[0.15804597000000076,0.018749999999997158],[-0.17068964999999992,-0.025000000000005684],[0.2908046000000004,0.11875000000000568],[-0.15172413999999979,-0.0625],[0.1580459799999998,0.10625000000000284],[0.22758621000000012,0.20625000000000426],[0.06321839000000029,0.06874999999999432],[0.06954023000000031,0.06875000000000142],[0.20229885000000003,0.3375000000000057],[0.08850574999999994,0.1875],[-0.06321840000000023,-0.14999999999999858],[0.04425286999999978,0.3062500000000057],[-0.025287360000000092,-0.16874999999999574],[0,0.5500000000000043],[0,1.1750000000000043],[0,1.7624999999999957],[0,2.15625],[0,2.375],[0,2.387500000000003],[0,2.2312499999999993],[0,1.8687500000000004],[0,1.3374999999999995],[0,0.6124999999999998],[-0.01896552000000007,0.15625],[0.025287359999999648,-0.1687499999999993],[-0.1201149500000005,0.28749999999999964],[0.06321838999999985,-0.15000000000000036],[-0.10747126000000007,0.15625],[-0.2086206899999996,0.22500000000000053],[-0.06954022999999943,0.0625],[-0.06954022999999943,0.06874999999999964],[-0.34137931000000066,0.1999999999999993],[-0.18965517999999992,0.08749999999999991],[0.15172414000000067,-0.0625],[-0.30977011000000054,0.04375000000000018],[0.17068964999999992,-0.02499999999999991],[-0.3540229899999998,0],[-0.6511494300000003,0],[-2.174712699999999,0],[-2.6804597999999977,0],[-2.3137931000000016,0],[-1.1316091999999998,0.03125],[-0.01896550000000019,0],[0.4488506000000001,0.1812499999999999],[-0.6385058000000043,-0.6375000000000002],[-1.5235631999999981,-1.5250000000000004],[-1.8396552000000028,-1.84375],[-1.5867815999999948,-1.5875000000000021],[-0.7902298999999999,-0.7562500000000014],[-0.012643700000005254,-0.01249999999999929],[-0.6890804999999958,0.7437499999999986],[0.7459770000000034,0.7437500000000021],[0.4931034999999966,0.49375000000000213],[1.2264368000000019,1.2312499999999993],[1.586781600000002,1.5875000000000004],[1.5551724000000036,1.5500000000000007],[1.1442528000000038,1.1437499999999998],[0.30344829999999945,0.29999999999999993],[0.6574713000000045,0.024999999999999994],[0.8344828,0],[1.8206896000000015,0],[2.2632183999999995,0],[2.1873563999999988,0],[1.5867816099999992,0],[0.40459770000000006,0],[0.8281609200000002,-0.38125000000000003],[0.018965517200000004,-1.9],[0,-0.125],[0,-0.8062499999999995],[0,-1.4187499999999993],[0,-1.8624999999999972],[0,-2.150000000000002],[0,-2.287499999999998],[0,-2.2437499999999986],[0,-2.049999999999997],[0,-1.6937500000000014],[0,-1.1812499999999986],[-0.006321839099999997,-0.5062500000000014],[-1.2074712619999999,-0.9500000000000028],[-1.2959770100000005,0],[-0.6701149399999995,0],[-1.3908045999999992,0],[-1.9091953999999998,0],[-2.2189654999999995,0],[-2.3201149999999977,0],[-2.1810344999999955,0],[-1.852298900000001,0],[-1.3086206999999987,0],[-0.5500000000000043,0.006249999999994316],[-0.9925287000000012,1.5],[0,1.0062500000000014],[0,0.8624999999999972],[0,1.6812500000000057],[0,2.1499999999999986],[0,2.268749999999997],[0,2.0437499999999993],[0,1.46875],[0,0.5375000000000014],[1.0241380000000007,-0.04374999999999929]],"o":[[0,1.1187499999999986],[0,2.6625000000000014],[0,3.2250000000000014],[0,2.75],[0,1.2999999999999972],[0,0.15625],[0.025287300000002233,-0.16874999999999574],[-0.04425290000000359,0.3062499999999986],[0.06321840000000378,-0.14999999999999858],[-0.07586200000000076,0.17500000000000426],[-0.2528736000000009,0.3812500000000014],[-0.06321839999999668,0.06875000000000142],[-0.06954029999999989,0.06874999999999432],[-0.24022990000000277,0.21250000000000568],[-0.177011499999999,0.10624999999999574],[0.1517241000000027,-0.0625],[-0.28448280000000636,0.11875000000000568],[0.17068960000000288,-0.025000000000005684],[-0.4931034999999966,0.05624999999999858],[-1.0367816000000047,0],[-1.5614942999999997,0],[-1.9155171999999965,0],[-2.086206899999997,0],[-2.117816099999999,0],[-1.9660919000000021,0],[-1.6626437000000003,0],[-1.1821839499999989,0],[-0.5373563200000007,0],[-0.16436781999999983,0],[0.17068964999999992,0.02499999999999858],[-0.30977011000000054,-0.04375000000000284],[0.15172414000000067,0.0625],[-0.17701149999999988,-0.07499999999999574],[-0.38563218,-0.25],[-0.06954022999999943,-0.0625],[-0.06954022999999943,-0.06875000000000142],[-0.21494252999999963,-0.23749999999999716],[-0.10747125999999962,-0.17499999999999716],[0.06321838999999985,0.14999999999999858],[-0.1201149500000005,-0.28125],[0.025287359999999648,0.16875000000000284],[-0.06321838999999985,-0.5437499999999957],[0,-1.1749999999999972],[0,-1.7624999999999957],[0,-2.15625],[0,-2.375],[0,-2.3874999999999993],[0,-2.2312499999999993],[0,-1.8687500000000004],[0,-1.3375000000000004],[0,-0.6124999999999998],[0,-0.16249999999999964],[-0.025287360000000092,0.16875000000000018],[0.04425286999999978,-0.30624999999999947],[-0.06321840000000023,0.15000000000000036],[0.07586206999999989,-0.17499999999999982],[0.2528735700000002,-0.38125000000000053],[0.06321839000000029,-0.06874999999999964],[0.06954023000000031,-0.06874999999999964],[0.24022989000000017,-0.21250000000000036],[0.17701149999999988,-0.10625000000000018],[-0.15172413999999979,0.0625],[0.2844827600000004,-0.11875000000000036],[-0.17068964999999992,0.025000000000000355],[0.35402298000000076,-0.043749999999999734],[0.6511494200000003,0],[2.174712639999999,0],[2.6804598000000013,0],[2.3201149,0],[1.1316091999999998,0],[0.01896550000000019,0],[-0.4488506000000001,-0.1812499999999999],[0.6321839000000047,0.6374999999999997],[1.5235631999999981,1.5249999999999995],[1.8396551999999957,1.84375],[1.586781600000002,1.5875000000000004],[0.7712643999999997,0.7749999999999986],[0.012643700000005254,0.01249999999999929],[0.6954022999999978,0.6999999999999993],[0.7017240999999999,-0.75],[-0.4931034999999966,-0.4937499999999986],[-1.2264367000000007,-1.2249999999999979],[-1.586781600000002,-1.5875000000000004],[-1.5488505999999944,-1.549999999999999],[-1.144252899999998,-1.1437499999999998],[-0.30344829999999945,-0.30000000000000004],[-0.4298850999999999,-0.43124999999999997],[-0.8344826999999988,-0.03125],[-1.8206896000000015,0],[-2.2632183999999995,0],[-2.1873562999999994,0],[-1.5867815800000002,0],[-0.40459770000000006,0],[-0.9103448299999997,0],[-1.7574712699999997,0.8250000000000001],[0,0.125],[0,0.8062499999999995],[0,1.4124999999999996],[0,1.8625000000000007],[0,2.150000000000002],[0,2.287499999999998],[0,2.2437499999999986],[0,2.049999999999997],[0,1.6937500000000014],[0,1.1812499999999986],[0,0.5062500000000014],[0.012643678200000001,1.5062500000000014],[1.0051724199999998,0.7937499999999957],[0.6701149399999995,0],[1.397126430000001,0],[1.9091954000000015,0],[2.2189654999999995,0],[2.3201149,0],[2.1873562999999976,0],[1.852298900000001,0],[1.3086206999999987,0],[0.5500000000000043,0],[1.8206895999999944,-0.018750000000004263],[0.5626436999999953,-0.8562499999999957],[0,-0.8624999999999972],[0,-1.6812499999999986],[0,-2.1499999999999986],[0,-2.2687500000000043],[0,-2.043750000000003],[0,-1.46875],[0,-0.5374999999999979],[0,-0.9812499999999993],[-1.0304597000000015,0.0625]]}}},{"ty":"st","o":{"a":0,"k":0},"w":{"a":0,"k":0},"c":{"a":0,"k":[0,0,0,0]},"lc":3,"lj":1,"ml":1},{"ty":"fl","o":{"a":0,"k":100},"r":1,"c":{"a":0,"k":[1,1,1,1]}},{"ty":"tr","o":{"a":0,"k":100},"a":{"a":0,"k":[0,0]},"s":{"a":0,"k":[100,100]},"p":{"a":0,"k":[11,11]},"r":{"a":0,"k":0}}]},{"ty":"gr","nm":"1 shape group","it":[{"ty":"rc","s":{"a":0,"k":[71,78]},"r":{"a":0,"k":8},"p":{"a":0,"k":[33.5,37]}},{"ty":"st","o":{"a":0,"k":100},"c":{"a":0,"k":[1,1,1,1]},"lc":3,"lj":1,"ml":1,"w":{"a":0,"k":4}},{"ty":"gf","o":{"a":0,"k":100},"r":2,"g":{"p":2,"k":{"a":0,"k":[0,0.25882352941176473,0.3058823529411765,0.7647058823529411,1,0.32941176470588235,0.40784313725490196,0.803921568627451]}},"t":1,"s":{"a":0,"k":[23.882194172000005,21.087137526000003]},"e":{"a":0,"k":[51.889239489000005,49.559046966]}},{"ty":"tr","o":{"a":0,"k":100},"a":{"a":0,"k":[0,0]},"s":{"a":0,"k":[100,100]},"p":{"a":0,"k":[4,4]},"r":{"a":0,"k":0}}]}],"op":359},{"ty":4,"nm":"frame2","ip":0,"st":0,"ind":2,"hix":3,"ks":{"o":{"a":0,"k":100},"or":{"a":0,"k":[0,0,0]},"a":{"a":0,"k":[226,127,0]},"p":{"s":true,"x":{"a":1,"k":[{"t":0,"s":[256],"e":[256],"i":{"x":[0.515],"y":[0.955]},"o":{"x":[0.455],"y":[0.03]}},{"t":49}]},"y":{"a":1,"k":[{"t":0,"s":[157],"e":[156],"i":{"x":[0.515],"y":[0.955]},"o":{"x":[0.455],"y":[0.03]}},{"t":49}]}},"rx":{"a":0,"k":0},"ry":{"a":0,"k":0},"rz":{"a":0,"k":0},"s":{"a":0,"k":[100,100,100]}},"shapes":[{"ty":"gr","nm":"frame2 shape group","it":[{"ty":"rc","s":{"a":0,"k":[450,252]},"r":{"a":0,"k":25},"p":{"a":0,"k":[226,127]}},{"ty":"st","o":{"a":0,"k":100},"c":{"a":0,"k":[0.32941176470588235,0.40784313725490196,0.803921568627451,1]},"lc":3,"lj":1,"ml":1,"w":{"a":0,"k":2},"d":[{"n":"d","v":{"a":0,"k":20},"nm":"0"},{"n":"g","v":{"a":0,"k":20},"nm":"1"},{"n":"o","v":{"a":1,"k":[{"t":0,"s":[0],"e":[100],"i":{"x":[1],"y":[1]},"o":{"x":[0],"y":[0]}},{"t":359}]},"nm":"2"}]},{"ty":"fl","o":{"a":0,"k":0},"c":{"a":0,"k":[0,0,0,0]},"r":1},{"ty":"tr","o":{"a":0,"k":100},"a":{"a":0,"k":[0,0]},"s":{"a":0,"k":[100,100]},"p":{"a":0,"k":[0,0]},"r":{"a":0,"k":0}}]}],"op":359},{"ty":4,"nm":"bg","ip":0,"st":0,"ind":1,"hix":5,"ks":{"o":{"a":0,"k":100},"or":{"a":0,"k":[0,0,0]},"a":{"a":0,"k":[256,156,0]},"p":{"s":true,"x":{"a":0,"k":256},"y":{"a":0,"k":156}},"rx":{"a":0,"k":0},"ry":{"a":0,"k":0},"rz":{"a":0,"k":0},"s":{"a":0,"k":[100,100,100]}},"shapes":[{"ty":"gr","nm":"bg shape group","it":[{"ty":"sh","ks":{"a":0,"k":{"c":false,"v":[[286,156],[230,156]],"i":[[0,0],[0,0]],"o":[[0,0],[0,0]]}}},{"ty":"st","o":{"a":0,"k":100},"c":{"a":0,"k":[0.32941176470588235,0.40784313725490196,0.803921568627451,1]},"lc":2,"lj":2,"ml":1,"w":{"a":0,"k":4}},{"ty":"fl","o":{"a":0,"k":0},"c":{"a":0,"k":[0,0,0,0]},"r":1},{"ty":"tr","o":{"a":0,"k":100},"a":{"a":0,"k":[0,0]},"s":{"a":0,"k":[100,100]},"p":{"a":0,"k":[0,0]},"r":{"a":0,"k":0}}]},{"ty":"gr","nm":"bg shape group","it":[{"ty":"sh","ks":{"a":0,"k":{"c":false,"v":[[257.25,127.5],[257.25,183.5]],"i":[[0,0],[0,0]],"o":[[0,0],[0,0]]}}},{"ty":"st","o":{"a":0,"k":100},"c":{"a":0,"k":[0.32941176470588235,0.40784313725490196,0.803921568627451,1]},"lc":2,"lj":2,"ml":1,"w":{"a":0,"k":4}},{"ty":"fl","o":{"a":0,"k":0},"c":{"a":0,"k":[0,0,0,0]},"r":1},{"ty":"tr","o":{"a":0,"k":100},"a":{"a":0,"k":[0,0]},"s":{"a":0,"k":[100,100]},"p":{"a":0,"k":[0,0]},"r":{"a":0,"k":0}}]},{"ty":"gr","nm":"bg shape group","it":[{"ty":"rc","s":{"a":0,"k":[512,312]},"r":{"a":0,"k":29},"p":{"a":0,"k":[256,156]}},{"ty":"st","o":{"a":0,"k":0},"w":{"a":0,"k":0},"c":{"a":0,"k":[0,0,0,0]},"lc":3,"lj":1,"ml":1},{"ty":"gf","o":{"a":0,"k":100},"r":2,"g":{"p":2,"k":{"a":0,"k":[0,1,1,1,1,0.9764705882352941,0.9764705882352941,0.9764705882352941]}},"t":1,"s":{"a":0,"k":[209.849624064,53.523437447999996]},"e":{"a":0,"k":[377.62781952,377.62500048000004]}},{"ty":"tr","o":{"a":0,"k":100},"a":{"a":0,"k":[0,0]},"s":{"a":0,"k":[100,100]},"p":{"a":0,"k":[0,0]},"r":{"a":0,"k":0}}]}],"op":359}],"op":359,"w":512,"h":312}